<?xml version="1.0"?>
<opencv_storage>
<stage8>
  <maxWeakCount>6</maxWeakCount>
  <stageThreshold>-1.4327837228775024e+00</stageThreshold>
  <weakClassifiers>
    <_>
      <internalNodes>
        0 -1 158925 1.1264149099588394e-02</internalNodes>
      <leafValues>
        -7.1783494949340820e-01 7.0232558250427246e-01</leafValues></_>
    <_>
      <internalNodes>
        0 -1 137093 -1.9209947204217315e-03</internalNodes>
      <leafValues>
        4.6520128846168518e-01 -5.7501512765884399e-01</leafValues></_>
    <_>
      <internalNodes>
        0 -1 88120 1.5878058038651943e-03</internalNodes>
      <leafValues>
        -8.9373940229415894e-01 2.8736338019371033e-01</leafValues></_>
    <_>
      <internalNodes>
        0 -1 89134 1.6312435036525130e-03</internalNodes>
      <leafValues>
        1.9199720025062561e-01 -9.7022259235382080e-01</leafValues></_>
    <_>
      <internalNodes>
        0 -1 105938 -1.0772501118481159e-03</internalNodes>
      <leafValues>
        -7.7674990892410278e-01 2.7513927221298218e-01</leafValues></_>
    <_>
      <internalNodes>
        0 -1 105933 5.8145041111856699e-04</internalNodes>
      <leafValues>
        2.8666931390762329e-01 -8.0627065896987915e-01</leafValues></_></weakClassifiers></stage8>
</opencv_storage>
