<?xml version="1.0"?>
<opencv_storage>
<stage14>
  <maxWeakCount>6</maxWeakCount>
  <stageThreshold>-1.5467127561569214e+00</stageThreshold>
  <weakClassifiers>
    <_>
      <internalNodes>
        0 -1 44996 -1.4532299712300301e-02</internalNodes>
      <leafValues>
        6.6132724285125732e-01 -6.1769711971282959e-01</leafValues></_>
    <_>
      <internalNodes>
        0 -1 101302 1.0387370130047202e-03</internalNodes>
      <leafValues>
        3.2516041398048401e-01 -8.1099873781204224e-01</leafValues></_>
    <_>
      <internalNodes>
        0 -1 151261 -9.5286086434498429e-04</internalNodes>
      <leafValues>
        2.7417886257171631e-01 -7.1601349115371704e-01</leafValues></_>
    <_>
      <internalNodes>
        0 -1 125250 -9.0022254735231400e-03</internalNodes>
      <leafValues>
        -9.2066776752471924e-01 2.6739120483398438e-01</leafValues></_>
    <_>
      <internalNodes>
        0 -1 111634 1.2092683464288712e-02</internalNodes>
      <leafValues>
        2.2576616704463959e-01 -9.0456974506378174e-01</leafValues></_>
    <_>
      <internalNodes>
        0 -1 101697 4.8932916251942515e-04</internalNodes>
      <leafValues>
        1.5673908591270447e-01 -9.3871337175369263e-01</leafValues></_></weakClassifiers></stage14>
</opencv_storage>
