<?xml version="1.0"?>
<opencv_storage>
<stage6>
  <maxWeakCount>5</maxWeakCount>
  <stageThreshold>-1.5760169029235840e+00</stageThreshold>
  <weakClassifiers>
    <_>
      <internalNodes>
        0 -1 104416 9.4784479588270187e-03</internalNodes>
      <leafValues>
        -7.0304566621780396e-01 4.9358972907066345e-01</leafValues></_>
    <_>
      <internalNodes>
        0 -1 91768 -7.3044605553150177e-02</internalNodes>
      <leafValues>
        6.0222911834716797e-01 -5.4361176490783691e-01</leafValues></_>
    <_>
      <internalNodes>
        0 -1 105938 1.2268354184925556e-03</internalNodes>
      <leafValues>
        3.3592829108238220e-01 -9.3950623273849487e-01</leafValues></_>
    <_>
      <internalNodes>
        0 -1 124466 -8.7615102529525757e-03</internalNodes>
      <leafValues>
        -8.8078141212463379e-01 2.4930183589458466e-01</leafValues></_>
    <_>
      <internalNodes>
        0 -1 110509 -1.3466895325109363e-04</internalNodes>
      <leafValues>
        2.1549373865127563e-01 -9.5141923427581787e-01</leafValues></_></weakClassifiers></stage6>
</opencv_storage>
