<?xml version="1.0"?>
<opencv_storage>
<stage12>
  <maxWeakCount>5</maxWeakCount>
  <stageThreshold>-1.0671902894973755e+00</stageThreshold>
  <weakClassifiers>
    <_>
      <internalNodes>
        0 -1 87154 -8.1402232171967626e-04</internalNodes>
      <leafValues>
        1.3157895207405090e-01 -8.2746475934982300e-01</leafValues></_>
    <_>
      <internalNodes>
        0 -1 58946 -7.5857591582462192e-04</internalNodes>
      <leafValues>
        2.6551643013954163e-01 -7.4116158485412598e-01</leafValues></_>
    <_>
      <internalNodes>
        0 -1 146896 9.8509876988828182e-04</internalNodes>
      <leafValues>
        -9.2677813768386841e-01 2.2928872704505920e-01</leafValues></_>
    <_>
      <internalNodes>
        0 -1 105681 -1.9794768377323635e-05</internalNodes>
      <leafValues>
        2.5312778353691101e-01 -8.2887184619903564e-01</leafValues></_>
    <_>
      <internalNodes>
        0 -1 127462 3.1949748517945409e-04</internalNodes>
      <leafValues>
        2.1604271233081818e-01 -1.</leafValues></_></weakClassifiers></stage12>
</opencv_storage>
