<?xml version="1.0"?>
<opencv_storage>
<stage5>
  <maxWeakCount>5</maxWeakCount>
  <stageThreshold>-1.3632659912109375e+00</stageThreshold>
  <weakClassifiers>
    <_>
      <internalNodes>
        0 -1 100317 -1.7997615039348602e-02</internalNodes>
      <leafValues>
        5.2350080013275146e-01 -7.0941251516342163e-01</leafValues></_>
    <_>
      <internalNodes>
        0 -1 78650 -2.0252775866538286e-03</internalNodes>
      <leafValues>
        4.7546723484992981e-01 -6.3753294944763184e-01</leafValues></_>
    <_>
      <internalNodes>
        0 -1 151135 -1.1203193571418524e-03</internalNodes>
      <leafValues>
        3.8024672865867615e-01 -7.2235834598541260e-01</leafValues></_>
    <_>
      <internalNodes>
        0 -1 112880 -1.9065625965595245e-03</internalNodes>
      <leafValues>
        2.5730043649673462e-01 -9.6121114492416382e-01</leafValues></_>
    <_>
      <internalNodes>
        0 -1 75807 -8.3656329661607742e-03</internalNodes>
      <leafValues>
        4.4873738288879395e-01 -6.4643698930740356e-01</leafValues></_></weakClassifiers></stage5>
</opencv_storage>
