<?xml version="1.0"?>
<opencv_storage>
<stage10>
  <maxWeakCount>5</maxWeakCount>
  <stageThreshold>-9.8037415742874146e-01</stageThreshold>
  <weakClassifiers>
    <_>
      <internalNodes>
        0 -1 111830 -1.1631784029304981e-02</internalNodes>
      <leafValues>
        4.7986575961112976e-01 -7.5380229949951172e-01</leafValues></_>
    <_>
      <internalNodes>
        0 -1 106139 -5.0814612768590450e-04</internalNodes>
      <leafValues>
        -7.9069817066192627e-01 2.7018445730209351e-01</leafValues></_>
    <_>
      <internalNodes>
        0 -1 138719 5.5791425984352827e-04</internalNodes>
      <leafValues>
        -8.6775344610214233e-01 2.4588838219642639e-01</leafValues></_>
    <_>
      <internalNodes>
        0 -1 120568 2.7103890897706151e-04</internalNodes>
      <leafValues>
        2.5116899609565735e-01 -9.2883223295211792e-01</leafValues></_>
    <_>
      <internalNodes>
        0 -1 78501 -1.1120568960905075e-02</internalNodes>
      <leafValues>
        -9.5006954669952393e-01 1.8618750572204590e-01</leafValues></_></weakClassifiers></stage10>
</opencv_storage>
